digraph Tree {
node [shape=box, style="filled", color="black"] ;
0 [label="petal length (cm) <= 2.6\ngini = 0.664\nsamples = 105\nvalue = [39, 31, 35]\nclass = setosa", fillcolor="#fef8f4"] ;
1 [label="gini = 0.0\nsamples = 39\nvalue = [39, 0, 0]\nclass = setosa", fillcolor="#e58139"] ;
0 -> 1 [labeldistance=2.5, labelangle=45, headlabel="True"] ;
2 [label="petal width (cm) <= 1.75\ngini = 0.498\nsamples = 66\nvalue = [0, 31, 35]\nclass = virginica", fillcolor="#f1e8fc"] ;
0 -> 2 [labeldistance=2.5, labelangle=-45, headlabel="False"] ;
3 [label="petal length (cm) <= 5.35\ngini = 0.165\nsamples = 33\nvalue = [0, 30, 3]\nclass = versicolor", fillcolor="#4de88e"] ;
2 -> 3 ;
4 [label="sepal width (cm) <= 2.55\ngini = 0.117\nsamples = 32\nvalue = [0, 30, 2]\nclass = versicolor", fillcolor="#46e789"] ;
3 -> 4 ;
5 [label="petal width (cm) <= 1.25\ngini = 0.408\nsamples = 7\nvalue = [0, 5, 2]\nclass = versicolor", fillcolor="#88efb3"] ;
4 -> 5 ;
6 [label="gini = 0.0\nsamples = 4\nvalue = [0, 4, 0]\nclass = versicolor", fillcolor="#39e581"] ;
5 -> 6 ;
7 [label="sepal length (cm) <= 6.1\ngini = 0.444\nsamples = 3\nvalue = [0, 1, 2]\nclass = virginica", fillcolor="#c09cf2"] ;
5 -> 7 ;
8 [label="gini = 0.0\nsamples = 2\nvalue = [0, 0, 2]\nclass = virginica", fillcolor="#8139e5"] ;
7 -> 8 ;
9 [label="gini = 0.0\nsamples = 1\nvalue = [0, 1, 0]\nclass = versicolor", fillcolor="#39e581"] ;
7 -> 9 ;
10 [label="gini = 0.0\nsamples = 25\nvalue = [0, 25, 0]\nclass = versicolor", fillcolor="#39e581"] ;
4 -> 10 ;
11 [label="gini = 0.0\nsamples = 1\nvalue = [0, 0, 1]\nclass = virginica", fillcolor="#8139e5"] ;
3 -> 11 ;
12 [label="petal length (cm) <= 4.85\ngini = 0.059\nsamples = 33\nvalue = [0, 1, 32]\nclass = virginica", fillcolor="#853fe6"] ;
2 -> 12 ;
13 [label="sepal width (cm) <= 3.0\ngini = 0.5\nsamples = 2\nvalue = [0, 1, 1]\nclass = versicolor", fillcolor="#ffffff"] ;
12 -> 13 ;
14 [label="gini = 0.0\nsamples = 1\nvalue = [0, 0, 1]\nclass = virginica", fillcolor="#8139e5"] ;
13 -> 14 ;
15 [label="gini = 0.0\nsamples = 1\nvalue = [0, 1, 0]\nclass = versicolor", fillcolor="#39e581"] ;
13 -> 15 ;
16 [label="gini = 0.0\nsamples = 31\nvalue = [0, 0, 31]\nclass = virginica", fillcolor="#8139e5"] ;
12 -> 16 ;
}