digraph Tree {
node [shape=box, style="filled", color="black"] ;
0 [label="flavanoids <= 1.4\nentropy = 1.566\nsamples = 142\nvalue = [47, 57, 38]\nclass = class_1", fillcolor="#eafcf2"] ;
1 [label="color_intensity <= 3.625\nentropy = 0.667\nsamples = 46\nvalue = [0, 8, 38]\nclass = class_2", fillcolor="#9c63ea"] ;
0 -> 1 [labeldistance=2.5, labelangle=45, headlabel="True"] ;
5 [label="entropy = 0.0\nsamples = 8\nvalue = [0, 8, 0]\nclass = class_1", fillcolor="#39e581"] ;
1 -> 5 ;
6 [label="entropy = 0.0\nsamples = 38\nvalue = [0, 0, 38]\nclass = class_2", fillcolor="#8139e5"] ;
1 -> 6 ;
2 [label="proline <= 722.5\nentropy = 1.0\nsamples = 96\nvalue = [47, 49, 0]\nclass = class_1", fillcolor="#f7fefa"] ;
0 -> 2 [labeldistance=2.5, labelangle=-45, headlabel="False"] ;
3 [label="alcohol <= 13.175\nentropy = 0.151\nsamples = 46\nvalue = [1, 45, 0]\nclass = class_1", fillcolor="#3de684"] ;
2 -> 3 ;
9 [label="entropy = 0.0\nsamples = 42\nvalue = [0, 42, 0]\nclass = class_1", fillcolor="#39e581"] ;
3 -> 9 ;
10 [label="magnesium <= 98.5\nentropy = 0.811\nsamples = 4\nvalue = [1, 3, 0]\nclass = class_1", fillcolor="#7beeab"] ;
3 -> 10 ;
11 [label="entropy = 0.0\nsamples = 3\nvalue = [0, 3, 0]\nclass = class_1", fillcolor="#39e581"] ;
10 -> 11 ;
12 [label="entropy = 0.0\nsamples = 1\nvalue = [1, 0, 0]\nclass = class_0", fillcolor="#e58139"] ;
10 -> 12 ;
4 [label="color_intensity <= 3.46\nentropy = 0.402\nsamples = 50\nvalue = [46, 4, 0]\nclass = class_0", fillcolor="#e78c4a"] ;
2 -> 4 ;
7 [label="entropy = 0.0\nsamples = 4\nvalue = [0, 4, 0]\nclass = class_1", fillcolor="#39e581"] ;
4 -> 7 ;
8 [label="entropy = 0.0\nsamples = 46\nvalue = [46, 0, 0]\nclass = class_0", fillcolor="#e58139"] ;
4 -> 8 ;
}